0.0039246595
0.033656105
-0.13186954
-0.025983313
-0.44842336
-0.19209288
-0.03952419
-0.17670833
-0.1657451
0.08365196
0.15483539
1.1129128
0.10769101
-0.278465
-0.3949481
0.07661369
-0.26657987
0.062235665
0.48654917
-0.75248843
0.61020905
0.04650276
0.7737469
-0.071498364
-0.276812
0.40948316
-0.32506394
-0.07297839
-0.71115017
-0.354391
0.5677375
-0.08348214
-0.0782395
0.4170997
0.50335854
-0.6389446
0.117772385
0.43017
0.36503986
0.058483284
0.015433064
0.43022454
0.46197817
0.2565809
-0.35305956
0.62408584
-0.54298
0.108733125
-0.1201386
-0.341838
0.28445914
0.0112436395
0.10561497
0.2600928
0.1343796
-0.04612836
-0.019041877
-0.22951125
-0.22918528
0.06463212
-0.99553955
-0.5723792
-0.033716038
-0.17575343
-0.29094228
-0.3277359
-0.23453452
-0.16808055
-0.28391576
0.03158944
-0.18276966
-0.22664715
-0.15613937
-0.08444561
-0.04865609
0.7324959
0.6739851
0.7188842
0.5914977
0.2793791
-0.2520803
0.26279867
0.5921597
-0.110031605
-0.02603116
-0.12583758
-0.122037254
0.68867797
-0.19472979
-0.031419475
-0.014529549
0.43073612
-0.17299274
-0.33912972
-0.56678444
-0.14689736
-0.21815614
-0.7490564
-0.4411322
-0.40369833
-0.045194272
-0.040054433
0.3080837
-0.16127369
-0.30601877
0.3417528
-0.377301
-0.7683748
-0.16832498
0.61677605
0.5242327
-0.19591245
-0.29180408
1.0816613
1.4752935
0.9092995
0.5267867
-0.108534046
0.42467773
-0.2185791
-0.22142734
0.08859647
0.057469346
-0.36491835
-0.16258267
-0.52061176
-0.18883674
-0.3064577
0.10785028
0.0097914105
-0.0241723
-0.4491294
-0.018698132
-0.18808308
-0.062161792
0.120524816
0.11824855
0.6524828
0.37201902
-0.05232149
0.28633514
-0.18121894
-0.5991696
-0.30125222
0.07968265
0.6126137
-0.41110867
-0.44319582
0.6444717
-0.0057491567
-0.26198873
-0.5628931
-0.019443542
-0.3740335
-0.17656817
0.48027325
1.079952
-0.108288534
-1.0262256
-0.2431407
0.1087527
-0.5990508
-0.52854437
0.119266465
1.203187
-0.1975207
-0.09802305
-0.1843016
0.07710915
-0.1456664
-0.34318247
-0.6495321
0.29575768
-0.23269533
-0.14615655
-0.049000412
0.055408932
0.00081049395
0.1698738
0.029592363
-0.26736704
-0.40297383
-0.51853913
0.0993463
0.10366816
0.6294194
1.0434544
-0.35548577
-0.28015816
0.19935527
-0.009662435
0.08908236
-0.037616786
0.14490466
-0.0035254234
0.035771336
-0.017389478
0.27123585
0.121270016
0.15868779
-0.01132058
0.36618182
0.32913262
-0.020729689
-0.4444884
-0.31034502
-0.3354677
0.06007593
0.19779623
-0.13304262
-0.5620087
-0.7525971
-0.70797545
0.09785505
0.41507772
-0.24228273
0.068417795
0.09376535
-0.08680705
0.24656434
0.43105352
0.20474115
0.24492666
0.16835803
0.1383473
0.32776576
-0.2745289
-0.2691429
0.08715294
0.23619245
-0.045262527
0.045113053
0.17366011
0.47898367
0.38386774
0.2763941
0.3858248
0.14768654
-0.5854222
-0.19804452
0.065321386
-0.32682988
-0.20832254
-0.6297742
-0.99105287
-1.0239012
-0.51302934
-0.0054182
-0.067654364
0.47104758
0.0657965
0.0006342371
0.15446031
0.5615741
-0.028554693
0.0063366573
0.0050102076
0.0037863122
-0.16893934
-0.045948155
0.15735161
0.04033824
-0.16497733
-0.084912896
-0.105797045
-0.10122512
-0.06898991
-0.276415
0.7608346
0.41850042
-0.24802724
-0.37240446
-0.055170182
-0.50719357
-0.15703548
-0.21698639
0.91780174
1.3019112
0.75075537
-0.6208439
0.0024329012
-0.64428556
-0.15762208
-0.37989563
-0.5091488
-0.26432323
0.8383144
-0.3082317
-0.07134102
-0.026659533
0.32422557
0.081652135
-0.38085586
-0.4147321
-0.000455889
0.03163967
-0.083268784
-0.32362786
0.42288858
0.11179838
-0.6125011
0.13510942
0.7042287
0.23696856
-0.040464263
0.39091107
0.71047354
0.75930214
0.016747905
-0.25473505
-0.18366474
-0.056734618
-0.007186274
-0.11902758
-0.25941232
0.048065215
-0.33513752
-0.27093086
-0.14475356
-0.035315506
-0.23912622
-0.28138858
-0.16806203
-0.2978745
-0.13190457
-0.23333089
-0.23807457
-0.30899617
-0.1823225
-0.47978833
0.27559024
0.72084004
0.5328234
-0.24765113
-0.19913948
-0.11646291
0.085575014
0.26058996
0.37224483
0.2948419
0.35276252
-0.056655794
0.13787709
-0.23903273
0.059051115
0.6553324
0.4885311
-0.017071588
-1.0616682
-0.123688914
0.32788607
-0.25644112
-0.28879967
-0.021986468
-0.13955885
-1.4980491
-0.522058
-0.6906187
-0.26084733
-0.13113262
-0.15010454
0.43774325
-0.27486628
-0.6620223
0.14867376
0.44509143
0.009185515
-0.22249025
-0.30030447
0.6301985
0.71774614
0.4310933
0.21906027
0.26865757
0.22160287
-0.055548716
-0.27748263
-0.36018568
0.82236385
0.40532598
0.1588408
0.24423544
-0.062235773
-0.2848681
-0.02280141
-0.05493975
-0.2203283
-0.259837
-0.21498786
-0.14045009
-0.05219917
0.06908804
-0.15400946
-0.10418772
-0.15337925
-0.36377627
-0.38805354
-0.40934998
-0.13291624
-0.11150252
-0.25090945
-0.081014015
0.16728333
-0.117501244
-0.13997136
0.010097317
0.17762113
0.16142142
-0.03520609
0.1131979
-0.19179066
-0.07984051
-0.13557155
-0.08979032
0.6777187
0.039481882
-0.15169747
0.10263797
0.7278238
0.782896
0.45780006
0.052674666
-0.26127788
-0.38833264
0.22390084
-1.6528755
-1.8502909
-0.8999036
-0.3526121
0.037704002
0.04190462
-0.05125415
0.0044833063
0.74644256
0.3145611
0.16791464
0.008814553
-0.0721652
0.16754968
-0.17270511
-0.098680496
0.48221612
1.1758968
0.8192778
0.37250346
0.6406688
0.27702528
0.016467553
-0.08986297
-0.18121128
-0.18982139
-0.054407876
-0.08700364
-0.14211054
-0.067275055
-0.006890504
-0.046901386
-0.40905356
0.06463798
0.019183204
0.04739312
-0.06270626
-0.068896785
0.052821226
-0.038763437
0.55176574
0.13996886
-0.60097516
-0.03325469
0.11432684
0.7226903
0.4824874
0.054618258
0.04791097
-0.12212108
0.7495247
0.3544722
-0.032178402
0.67896235
0.030436983
-0.07277403
-0.48867196
0.1878112
0.93843263
1.0436021
0.01752187
0.30121073
-0.3507745
0.08375788
-0.44331047
-0.36959368
-0.03524625
-0.11578523
0.008375818
-0.13272154
-0.29133785
-0.21506967
0.18355136
0.38467848
0.37325302
-0.05642327
-0.47880098
-0.3836274
-0.22419722
-0.22419578
-0.39139873
-0.54792976
-0.101967074
-0.08607493
-0.6875905
-0.31666717
-0.16822053
0.06565795
-0.07198265
0.12416921
0.06325672
-0.2374522
0.03328458
0.12414521
0.08262786
-0.075944364
-0.10478649
0.17539316
-0.08267916
-0.043616407
0.05865586
0.2536336
0.10829623
-0.07521846
-0.22125785
0.11209669
-0.04627318
0.6389372
1.0496821
0.9532864
0.7029338
0.14205736
-0.058785383
-0.04101855
-0.28199527
-1.0005375
-2.0351028
-1.7504725
0.23546182
-0.078556485
0.14654818
-0.15309182
0.12505786
0.40245092
0.042784728
-0.36701706
0.23844899
0.055241372
-0.06984593
0.075894006
0.052608684
0.010837583
0.05042154
-0.0072320597
0.11254457
-0.0842603
-0.011487022
-0.0811784
0.18918721
-0.016218334
-0.03199727
0.23008993
0.15515673
0.03547304
-0.05291052
0.45507273
0.014578974
-0.28497317
-0.1826145
0.17328712
-0.08552913
-0.28946647
-0.3318486
-0.4637573
-0.43249026
-0.2581284
-0.8135197
-0.27243367
-0.20389703
-0.28138393
0.003743787
0.27307647
-0.29031178
0.62995565
0.32387593
-0.1436729
-0.16252391
-0.35880667
0.044310793
-0.34817272
-0.0020139476
0.4530832
0.8754168
0.6993497
0.09588153
-0.44745728
-0.25660175
0.16340639
0.17584732
0.03819605
-0.038494546
-0.15796192
0.60496664
-0.31534123
-0.42318034
-0.34966096
0.7097677
0.2675393
-0.5335198
-0.53533643
0.7195851
-0.119596176
0.72373086
0.56923795
-0.026053363
0.23864837
-0.31348765
0.53917503
0.7181081
-0.1416558
-0.2138498
0.2953229
0.35075155
-0.2769448
0.25896665
0.4872309
-0.24656145
-0.42635506
-0.44246483
-0.32559618
-0.22605185
-0.025860507
-0.52016145
-0.56002265
-0.26727468
0.19627151
0.23564588
0.195114
0.2822986
0.029575763
0.5021272
0.22975247
0.27198145
0.20342065
0.20746619
-0.8041077
-0.6113521
-0.061918918
0.18585165
0.0004452883
0.14333425
0.23759256
0.041158933
-1.2914975
-0.070970014
0.35528222
-0.1794193
-0.14907579
-0.05354486
0.24367498
-0.39906746
-0.7886228
0.83727837
0.1595703
-0.0027430851
-0.4954953
0.1215262
0.23020054
-0.80959463
-0.49012795
0.7434844
0.18745337
0.12845457
-0.776746
-0.21185634
0.2981692
0.22968565
-0.3426451
-0.080007836
0.42737052
-0.24813305
-1.3036242
0.051960826
0.36652592
0.12751484
0.2340333
0.40289322
-0.039272413
-0.64923775
-0.27075604
0.24101998
0.36516917
0.14522393
0.30312884
-0.13003185
0.13195963
0.22341822
0.115401134
0.14895526
-0.036409687
0.11496976
0.28103706
0.33387905
0.3401994
0.3927602
0.19415778
0.1232319
0.08054779
-0.018219745
0.055108093
0.09302562
0.424043
0.38805568
0.39642066
-0.10196467
-0.057686564
-0.39687487
0.07112087
-0.09108529
-0.53052944
-0.6567884
-0.28416964
-0.38488224
-0.13059047
0.05959049
0.5366219
-0.33852187
0.17676823
-0.046883408
0.63248664
-0.27814725
0.044405557
-0.29570392
0.33352736
0.5682546
0.93308866
-0.57786274
-0.47773084
-0.16801691
-0.3004548
-0.87223846
0.002104275
0.102115914
0.060572345
-0.1146781
0.04637119
-0.33440894
0.047364052
-0.4884798
-0.3563324
-0.24274766
-0.44421902
0.0005882458
0.47227326
0.12637238
-0.017247375
-0.3676878
-0.6189001
-0.50643
-0.5117005
-0.2898668
0.011343141
-0.034409225
0.032908447
-0.01523997
-0.16304779
-0.34434104
-0.5418793
-0.20417987
-0.10990138
0.028108424
0.035621203
-0.19337964
-0.17791462
-0.35877946
-0.48599443
0.89113855
0.8333604
-0.23813388
-0.12715124
-0.05232757
-0.15349004
-0.084476314
-1.5033579
1.3137687
0.6531709
0.19539677
-0.16822217
-0.0008153821
0.28785357
0.16211803
-0.65752804
0.46971303
-0.07928962
-0.16308703
-0.16258498
0.55091774
0.0036200234
0.020119581
-0.21308912
0.3695176
-0.032243773
-0.116992794
-0.16680333
0.5926531
0.079902954
0.06569693
-0.05242972
-0.27662134
-0.30230546
0.12999678
-0.14472458
0.14921938
0.23804271
0.0699288
-0.17540738
-0.102300346
0.6650192
-0.11488582
-0.066975966
-0.0043630237
-0.03200809
-0.13268419
-0.044820905
-0.3201855
-0.21586831
-0.091174394
0.084766954
-0.109877236
-0.024067096
0.17172548
-0.10799549
-0.3976783
-0.0037976708
-0.14737236
0.06953579
-0.109564014
0.47898257
-0.13110839
-0.15910143
-0.24285458
-0.24027383
-0.3132254
0.09385231
0.15912327
-0.3407744
-0.4486034
-0.09831736
-0.2964061
-0.20565157
-0.5893147
0.15266117
-0.22012992
0.18712224
0.58722645
-0.031255685
0.10225957
-0.4221674
-0.17457479
-0.071033284
0.26193187
0.703416
0.48230356
0.6152356
1.0953934
1.3415619
0.65483093
-0.124454394
0.014626123
-0.17097698
-0.02641286
0.4537716
0.31902775
-0.3251361
0.3904886
-0.18592586
-0.17653736
-0.2987683
-0.19946611
-0.80545926
-1.3052647
-0.7035108
-0.09782103
0.00017992531
0.19596191
0.006144485
-0.06739504
0.734609
0.056626126
-0.21696286
0.0067521813
0.12264982
0.18299115
0.15479876
-0.06218183
-0.20409755
0.05816025
0.122773685
0.106709175
0.18221335
-0.34882462
-0.6674409
-0.8733495
-0.92255116
-0.90389544
-0.42344955
0.38700247
-0.0056038387
-0.3802614
-0.5409909
-0.17617463
0.13696957
0.39096522
0.7354052
0.74798304
0.21321644
0.022704097
0.5543096
0.6744541
0.19128007
-0.10743625
0.08666022
0.14591639
0.031869594
-0.09952602
0.32367817
0.019956356
0.104807414
-0.43374553
-0.2680105
-0.24506296
-0.043202456
0.005669492
0.17270768
0.26178834
-0.23955314
-0.47186688
-0.29554844
-0.044627577
0.102191135
-0.25855133
0.48947203
0.086122185
-0.299921
-0.39561254
0.27813503
0.1821615
0.22968891
-0.027782682
-0.5643333
0.016637988
0.53057766
0.13310856
0.15184051
0.19127935
-0.13249433
-0.10522926
0.05341095
0.14000316
-0.04360102
0.32245687
0.02812675
-0.031720717
-0.004987809
0.24671578
0.38477853
0.17493834
0.40964177
0.65138155
0.66196144
-0.056467287
-0.2774506
-0.11419835
-0.122486226
-0.19449964
-0.2783504
0.300927
0.5697318
0.37404352
-0.25867677
-0.57527643
0.2766953
0.48632005
0.18050945
0.008870557
-0.103019446
-0.11892532
-0.013254337
0.17787902
0.30177823
-0.24820742
-0.2011675
0.25745243
0.6567541
-0.6629787
0.06959423
0.7103001
0.37043086
-0.412176
-0.08980444
0.26862118
0.22314315
-0.81915927
0.078199916
-0.25991297
0.17567597
0.30670577
0.13207354
-0.0503485
-0.4501158
-0.30374935
-0.17183423
-0.41380677
-0.4817234
-0.65910465
-0.8658853
-1.2481192
-0.2537451
-0.026324488
0.07034035
0.16639583
0.011803357
0.15740688
0.22413059
0.18974724
0.15322852
0.041879993
0.041174266
-0.05232119
0.42207548
0.08421239
0.17251864
0.12251629
-0.22926366
0.11275236
0.30710664
0.66138583
0.4421578
0.12003169
0.26434848
-0.025502466
-0.05930343
-0.10347294
0.1326631
-1.240449
-2.422866
-1.5253384
0.11402423
-0.13439704
-0.13463534
0.36789122
0.01194189
-0.23421645
-0.10535144
0.22557046
0.25775257
0.07067921
-0.2278086
0.004132309
0.12797686
0.5653295
0.26719952
0.29746968
0.11006157
0.11822265
-0.090733334
0.25371313
0.12148178
0.37692833
0.22927862
0.27764872
-0.050306622
-0.18681483
-0.5023832
0.16708688
-0.0133226095
-0.066513725
-0.14595173
0.11408096
-0.049814172
-0.5214262
-0.08748407
0.13610433
-0.2302313
-0.12316643
-0.09541054
-0.20647758
-0.41821155
-0.15620826
-0.06424933
-0.14658697
-0.26946223
-0.65302974
-0.0887333
-0.47581282
0.34523076
0.123303875
-0.5017725
0.033007793
-0.1011943
-0.469407
0.2611618
0.8264426
0.0506169
0.80891854
-0.08953493
-0.26824233
-0.034456983
0.041770812
1.1565385
-0.3802801
-0.2283462
0.9181806
0.41439486
-0.60460836
-0.28222492
0.31442025
0.22556853
-0.38268155
-0.1649751
0.29556534
0.3138473
-0.7669694
-0.23046587
0.15697339
0.40327075
-0.36556804
0.0991651
-0.24255635
-0.20287825
-0.56646794
-0.109643616
-0.45064348
-0.096131556
0.4393161
-0.15976578
-0.17641316
0.042880245
-0.26928726
-0.13750751
0.13741024
0.19406652
0.4132077
0.8838357
0.73232865
0.18279761
-0.17935342
