0.1786957
-0.020318583
-1.2601479
0.2188485
0.98075026
0.473085
-1.1553917
-0.07076158
-0.28684506
-0.31632015
1.282729
-0.21928702
-0.25528097
0.6125433
0.06946634
0.3984813
-0.80893075
0.29421148
-2.062932
-1.2637678
1.1611801
-0.03249726
1.7058146
1.8259511
-0.761639
-0.4123615
-0.8150415
-0.55616117
0.33824027
0.7980411
0.9177043
-1.4184371
0.061098114
-0.063696
0.35264057
-2.1927638
0.3376078
0.5686174
-0.20027724
-0.43373665
0.045999985
0.11358123
-0.42950383
-0.34201843
-0.8341547
1.6031429
-1.8248311
0.0026398224
0.5710482
1.4251672
-0.68878514
-0.94389683
1.27456
-0.69220454
0.26561502
0.80880564
0.6515953
0.5244241
-0.6588073
-0.3247635
1.5341716
-0.04811679
-0.28728333
0.93016565
-0.7170581
-1.369077
-0.01696516
-0.2067563
-0.84253657
0.26968274
0.84545624
-0.15504557
0.7467737
-1.4224074
0.57788825
-1.3060992
-0.7050148
-0.32577613
0.43687287
0.18545215
-0.2475584
-0.15154542
-0.47986212
0.37778863
1.1655953
0.42193532
0.29163283
0.45962948
-1.3703578
0.010045522
-0.5559783
1.3847054
-1.038367
1.269362
-1.2268606
-0.29923296
1.0250281
-0.41963157
2.081133
0.2095908
0.64907473
0.13169323
-1.4175347
-0.46151486
1.3748449
1.2162447
0.011738793
0.1239862
-0.3496628
-0.19462276
-1.3412914
0.8033466
0.46578377
-0.23682624
-1.4780575
0.19876717
1.357905
-0.7416691
1.3000969
1.2112807
-1.3188387
0.7571837
-1.1188715
1.1898563
-0.42096
-0.1421824
-0.39235023
-1.2243515
1.0646919
0.2796983
0.24848062
1.0664886
0.0316853
0.8443864
0.21332884
-1.3777676
-0.604356
-0.75158906
0.4804899
0.25603023
0.521672
-0.88127553
1.6931038
0.95996416
0.3751295
0.483205
-0.5464211
-0.76067376
-0.5726385
-0.8098442
-0.65197575
1.2945942
-0.07355318
0.7075708
-0.17631966
-0.08042664
-0.25069848
-1.1463791
0.08446719
-0.003361883
-0.21913742
0.4324966
1.1521375
0.6914546
0.8330235
-0.5431872
-0.19296327
-1.0281059
1.1234416
-0.7384428
-0.38227668
-0.21874517
0.16753896
0.07342378
0.17396307
-0.026635138
0.8659962
-0.838849
-0.99061865
1.0163927
